/* Generated by Edge Impulse
*
* Permission is hereby granted, free of charge, to any person obtaining a copy
* of this software and associated documentation files (the "Software"), to deal
* in the Software without restriction, including without limitation the rights
* to use, copy, modify, merge, publish, distribute, sublicense, and/or sell
* copies of the Software, and to permit persons to whom the Software is
* furnished to do so, subject to the following conditions:
*
* The above copyright notice and this permission notice shall be included in
* all copies or substantial portions of the Software.
*
* THE SOFTWARE IS PROVIDED "AS IS", WITHOUT WARRANTY OF ANY KIND, EXPRESS OR
* IMPLIED, INCLUDING BUT NOT LIMITED TO THE WARRANTIES OF MERCHANTABILITY,
* FITNESS FOR A PARTICULAR PURPOSE AND NONINFRINGEMENT. IN NO EVENT SHALL THE
* AUTHORS OR COPYRIGHT HOLDERS BE LIABLE FOR ANY CLAIM, DAMAGES OR OTHER
* LIABILITY, WHETHER IN AN ACTION OF CONTRACT, TORT OR OTHERWISE, ARISING FROM,
* OUT OF OR IN CONNECTION WITH THE SOFTWARE OR THE USE OR OTHER DEALINGS IN THE
* SOFTWARE.
*/
// Generated on: 30.10.2020 23:18:35

#include <stdio.h>
#include <stdlib.h>
#include <vector>
#include "edge-impulse-sdk/tensorflow/lite/c/builtin_op_data.h"
#include "edge-impulse-sdk/tensorflow/lite/c/common.h"
#include "edge-impulse-sdk/tensorflow/lite/micro/kernels/micro_ops.h"

#if defined __GNUC__
#define ALIGN(X) __attribute__((aligned(X)))
#elif defined _MSC_VER
#define ALIGN(X) __declspec(align(X))
#elif defined __TASKING__
#define ALIGN(X) __align(X)
#endif

namespace {

constexpr int kTensorArenaSize = 25408;
uint8_t* tensor_arena = NULL;
static uint8_t* current_location;
static uint8_t* tensor_boundary;
template <int SZ, class T> struct TfArray {
  int sz; T elem[SZ];
};
enum used_operators_e {
  OP_RESHAPE, OP_CONV_2D, OP_ADD, OP_MAX_POOL_2D, OP_FULLY_CONNECTED, OP_SOFTMAX,  OP_LAST
};
struct TensorInfo_t { // subset of TfLiteTensor used for initialization from constant memory
  TfLiteAllocationType allocation_type;
  TfLiteType type;
  void* data;
  TfLiteIntArray* dims;
  size_t bytes;
};
struct NodeInfo_t { // subset of TfLiteNode used for initialization from constant memory
  struct TfLiteIntArray* inputs;
  struct TfLiteIntArray* outputs;
  void* builtin_data;
  used_operators_e used_op_index;
};

TfLiteContext ctx{};
TfLiteTensor tflTensors[31];
TfLiteRegistration registrations[OP_LAST];
TfLiteNode tflNodes[15];

const TfArray<2, int> tensor_dimension0 = { 2, { 1,3136 } };
const ALIGN(8) int32_t tensor_data1[2] = { -1, 400, };
const TfArray<1, int> tensor_dimension1 = { 1, { 2 } };
const ALIGN(8) float tensor_data2[8] = { 0.12654922902584076, -0.13783532381057739, -0.039502494037151337, -0.017287975177168846, 0.03938024491071701, 0.06541839987039566, -0.0722760409116745, 0.026792120188474655, };
const TfArray<1, int> tensor_dimension2 = { 1, { 8 } };
const ALIGN(8) float tensor_data3[16] = { -0.033029276877641678, -0.084355227649211884, -0.1119811087846756, 0.064297683537006378, -0.059894807636737823, 0.19721585512161255, -0.024292144924402237, -0.038717266172170639, -0.056864548474550247, -0.0085480250418186188, 0.23545591533184052, 0.064692020416259766, -0.12686988711357117, -0.080583073198795319, 0.12113256007432938, 0.15568716824054718, };
const TfArray<1, int> tensor_dimension3 = { 1, { 16 } };
const ALIGN(8) float tensor_data4[4] = { -0.17239540815353394, -0.018394323065876961, 0.17510631680488586, -0.18457426130771637, };
const TfArray<1, int> tensor_dimension4 = { 1, { 4 } };
const ALIGN(8) float tensor_data5[4*400] = { 
  0.12577095627784729, 0.18689942359924316, 0.20910832285881042, 0.064940214157104492, 0.046481095254421234, -0.048555262386798859, 0.068712539970874786, 0.36516475677490234, 0.28304776549339294, 0.14830173552036285, -0.012597043998539448, 0.18663981556892395, 0.12010274827480316, 0.43855497241020203, 0.1451295018196106, -0.0021860466804355383, 0.030055122449994087, 0.17590384185314178, 0.17905245721340179, 0.15128013491630554, -0.07492084801197052, -0.037594620138406754, 0.0029060691595077515, 0.45613661408424377, 0.34513279795646667, 0.15968964993953705, -0.011349684558808804, 0.051592398434877396, 0.24148763716220856, 0.26973250508308411, 0.070814244449138641, -0.017286635935306549, -0.00023305704235099256, 0.24574536085128784, 0.25408801436424255, -0.039533205330371857, -0.022726947441697121, -0.22367863357067108, 0.086433738470077515, -0.056638393551111221, -0.035540856420993805, 0.20851723849773407, -0.22540129721164703, 0.37231221795082092, 0.10802135616540909, 0.071591965854167938, -0.066665500402450562, -0.097833439707756042, -0.075633563101291656, 0.34826624393463135, 0.095476649701595306, 0.0096844425424933434, -0.0024431752972304821, -0.090630292892456055, -0.018065497279167175, -0.27020102739334106, -0.093157090246677399, 0.028809439390897751, -0.30393350124359131, 0.14943143725395203, 0.1518016904592514, -0.023128731176257133, 0.003862165380269289, -0.033318024128675461, -0.069155007600784302, 0.25315913558006287, 0.23268383741378784, -0.026028035208582878, 0.10870525985956192, -0.11832410842180252, 0.10339374095201492, -0.25921931862831116, -0.17236720025539398, 0.12199438363313675, -0.14716194570064545, 0.16155612468719482, 0.089898914098739624, 0.098407559096813202, 0.034043353050947189, 0.064469784498214722, 0.22055016458034515, 0.37213718891143799, 0.14328932762145996, -0.081144139170646667, -0.041260149329900742, -0.068259425461292267, -0.057507514953613281, -0.011604802682995796, -0.13686993718147278, 0.017895001918077469, -0.21823810040950775, 0.30080109834671021, -0.025353146716952324, 0.13918742537498474, -0.076267413794994354, -0.0061133657582104206, 0.04594971239566803, 0.19150809943675995, 0.32033303380012512, 0.13145984709262848, 0.040280748158693314, -0.049609817564487457, 0.045268792659044266, 0.099973313510417938, 0.32888814806938171, 0.19790375232696533, -0.30352470278739929, 0.24156391620635986, -0.035124965012073517, 0.34398195147514343, -0.022697009146213531, -0.029964718967676163, 0.11810626089572906, 0.12238497287034988, 0.26794961094856262, 0.04333139955997467, 0.082528948783874512, -0.10829143226146698, 0.020827017724514008, 0.28404837846755981, 0.18860754370689392, 0.092082791030406952, -0.18571700155735016, -0.045283399522304535, -0.07054649293422699, 0.097141958773136139, -0.069486580789089203, -0.039084538817405701, 0.01691853255033493, 0.028512878343462944, -0.047907289117574692, 0.11999351531267166, -0.023170808330178261, -0.084658883512020111, -0.055393170565366745, 0.2965434193611145, 0.20793111622333527, -0.10136798024177551, -0.30327960848808289, 0.27241098880767822, 0.019250180572271347, 0.27418595552444458, -0.086299695074558258, -0.12332044541835785, 0.021835794672369957, 0.16956843435764313, -0.024558641016483307, -0.039253253489732742, 0.0047282250598073006, 0.078720629215240479, 0.0012863975716754794, 0.25353908538818359, 0.2384178638458252, -0.077603928744792938, -0.25937026739120483, 0.31339669227600098, 0.07344682514667511, 0.36271208524703979, 0.13934284448623657, -0.23918905854225159, -0.15162402391433716, 0.010421277023851871, 0.22115606069564819, -0.020128661766648293, 0.026903146877884865, 0.0049414564855396748, -0.011636362411081791, -0.024069396778941154, 0.072845853865146637, 0.061883699148893356, -0.28545883297920227, 0.14918085932731628, 0.030296474695205688, 0.16608279943466187, -0.012948613613843918, -0.10993464291095734, 0.033729247748851776, 0.18747535347938538, 0.052390672266483307, -0.11386587470769882, -0.031974777579307556, -0.057775698602199554, -0.086309738457202911, 0.051028747111558914, 0.30529636144638062, 0.15685023367404938, -0.16104523837566376, 0.3547356128692627, 0.16390436887741089, 0.079615674912929535, 0.092991955578327179, 0.026429258286952972, 0.140393927693367, 0.084425888955593109, 0.14043958485126495, 0.045360073447227478, 0.074998587369918823, -0.0011752854334190488, 0.1187746673822403, 0.079142153263092041, 0.31501603126525879, 0.11403462290763855, -0.18794968724250793, 0.19498801231384277, 0.085394643247127533, 0.18639753758907318, 0.074868477880954742, -0.054878588765859604, -0.25918200612068176, 0.0077489004470407963, 0.25696569681167603, -0.088834002614021301, 0.021078096702694893, -0.035824663937091827, 0.10725051164627075, 0.0086696762591600418, 0.33444911241531372, -0.012059730477631092, -0.12461146712303162, 0.15069793164730072, 0.14187587797641754, -0.01757422462105751, -0.084865450859069824, -0.17176714539527893, 0.25177797675132751, 0.080444812774658203, 0.094139538705348969, -0.089391976594924927, 0.017199549823999405, -0.04745933786034584, 0.11549216508865356, 0.083953171968460083, 0.091413639485836029, 0.16277530789375305, -0.2603432834148407, 0.27695870399475098, 0.10076049715280533, 0.14604027569293976, -0.12158944457769394, -0.15081967413425446, -0.27495995163917542, 0.096942216157913208, 0.10169593244791031, -0.076357737183570862, 0.071046881377696991, -0.093129642307758331, 0.015308476984500885, -0.060867484658956528, 0.0053399354219436646, 0.039742693305015564, -0.16147761046886444, -0.089238829910755157, -0.0023507336154580116, 0.067772567272186279, 0.023682927712798119, -0.15567381680011749, 0.26596581935882568, 0.069720789790153503, -0.050763584673404694, -0.024072160944342613, -0.05346636101603508, -0.028021376579999924, -0.0104793980717659, 0.079777918756008148, -0.022651286795735359, -0.034198373556137085, -0.14434638619422913, -0.025633828714489937, 0.061306647956371307, 0.13943134248256683, 0.087278768420219421, -0.18070326745510101, -0.095554925501346588, -0.016363630071282387, 0.16704274713993073, -0.074945203959941864, 0.068574413657188416, -0.04489009827375412, 0.076416157186031342, 0.1258891224861145, 0.23562431335449219, 0.021287459880113602, -0.15413844585418701, 0.094987846910953522, 0.13178476691246033, 0.079754307866096497, 0.095030143857002258, -0.031505312770605087, 0.19495169818401337, 0.19373850524425507, 0.1916077584028244, -0.19967010617256165, 0.029387889429926872, -0.2141810804605484, 0.074515506625175476, -0.044146079570055008, -0.037114627659320831, -0.057767242193222046, -0.30678614974021912, 0.13820093870162964, 0.15926346182823181, 0.07545769214630127, 0.053633548319339752, -0.12390180677175522, 0.016708182170987129, 0.21722473204135895, 0.19770565629005432, -0.04767211526632309, -0.081478089094161987, -0.12862870097160339, 0.029732819646596909, -0.0051878457888960838, 0.11005040258169174, 0.23457643389701843, -0.15039663016796112, 0.083731010556221008, -0.024808915331959724, 0.1726837158203125, 0.089995689690113068, -0.035389132797718048, -0.011455319821834564, 0.29570552706718445, 0.036203328520059586, -0.10596021264791489, 0.082315370440483093, -0.25869140028953552, -0.018492359668016434, -0.054758027195930481, -0.10777856409549713, -0.12452911585569382, -0.19664907455444336, 0.11183611303567886, 0.099044099450111389, 0.12912197411060333, -0.02841704897582531, -0.11630256474018097, 0.21542046964168549, 0.17739127576351166, 0.082646742463111877, 0.010615191422402859, 0.079741448163986206, -0.12768498063087463, 0.14421044290065765, 0.23903946578502655, 0.31470596790313721, 0.13694062829017639, -0.18160594999790192, 0.10873527079820633, 0.076661266386508942, 0.22537811100482941, 0.053046476095914841, -0.17937017977237701, -0.012417313642799854, 0.056772496551275253, 0.1583540290594101, -0.0044572046026587486, -0.031628604978322983, -0.10287760943174362, 0.095295988023281097, -0.045250754803419113, 0.14501097798347473, 0.23699575662612915, -0.24543337523937225, -0.0048443889245390892, 0.17655359208583832, 0.22686594724655151, -0.09424329549074173, -0.0042767650447785854, 0.094299778342247009, 0.23951716721057892, 0.075379170477390289, -0.084556847810745239, 0.081350423395633698, -0.13716858625411987, 0.11004975438117981, 0.075553178787231445, 0.17139077186584473, 0.11228998750448227, -0.19875618815422058, 0.031618718057870865, 0.14068503677845001, 0.17599761486053467, -0.12727643549442291, -0.18580564856529236, 0.17227610945701599, 0.12677095830440521, 0.39439690113067627, 0.069638870656490326, 0.10570183396339417, -0.074970327317714691, 0.20419174432754517, 0.26054379343986511, 0.30846244096755981, -0.081090770661830902, -0.07416360080242157, -0.04916800931096077, 0.40847256779670715, 0.28594943881034851, -0.11771755665540695, -0.027384834364056587, 
  -0.045650631189346313, -0.36510089039802551, 0.091855347156524658, 0.14656287431716919, -0.018463103100657463, 0.054878227412700653, 0.072958827018737793, -0.072938129305839539, -0.0051244283095002174, 0.12111543864011765, -0.11187013238668442, -0.38974112272262573, -0.14064253866672516, 0.077369257807731628, -0.093456380069255829, 0.043938219547271729, 0.003196722362190485, -0.14761804044246674, -0.27122685313224792, -0.029578547924757004, -0.11711409687995911, 0.0064116735011339188, -0.11095754057168961, -0.2001110166311264, -0.29612189531326294, -0.14355278015136719, -0.13826081156730652, -0.12494498491287231, -0.21773931384086609, -0.06621803343296051, -0.082041412591934204, -0.0635514035820961, -0.26541906595230103, -0.35173657536506653, -0.22002203762531281, 0.1847383975982666, 0.012221266515552998, 0.040407653898000717, -0.12042068690061569, -0.17761224508285522, -0.33838742971420288, 0.014992504380643368, -0.094806000590324402, -0.39041537046432495, -0.12159869819879532, -0.10338688641786575, 0.016380725428462029, 0.019997162744402885, 0.39541050791740417, -0.07986757904291153, -0.028421413153409958, 0.071080654859542847, 0.079612761735916138, 0.067788593471050262, -0.071357220411300659, 0.29445978999137878, 0.14365929365158081, 0.02638876810669899, 0.051905062049627304, 0.18183021247386932, 0.073233388364315033, 0.17634230852127075, -0.040433526039123535, 0.037620846182107925, -0.17531490325927734, -0.29795387387275696, -0.020723447203636169, -0.11116179823875427, 0.054395165294408798, 0.068133004009723663, -0.013438592664897442, -0.076542571187019348, 0.11383655667304993, 0.087398037314414978, 0.18013365566730499, -0.29553809762001038, 0.2279488742351532, 0.10443266481161118, 0.042016021907329559, -0.039288982748985291, -0.63716357946395874, -0.19607967138290405, -0.14279027283191681, 0.013577098958194256, -0.12856040894985199, -0.00019096554024145007, -0.28413105010986328, -0.37481528520584106, -0.68542033433914185, -0.084950342774391174, -0.094948351383209229, -0.24734549224376678, -0.30269056558609009, -0.43264728784561157, -0.051167193800210953, -0.11924906075000763, 0.31953263282775879, -0.30893832445144653, -0.20535387098789215, -0.14978532493114471, 0.11278212815523148, 0.092504054307937622, -0.020163971930742264, -0.018817344680428505, -0.25374224781990051, -0.12334515899419785, 0.069687075912952423, -0.0031717442907392979, -0.31720715761184692, -0.13659834861755371, 0.00050574494525790215, -0.13232667744159698, -0.0048184720799326897, -0.18918514251708984, -0.019633792340755463, 0.034152016043663025, -0.021505735814571381, 0.093814045190811157, -0.011135322041809559, 0.16370637714862823, 0.03796083852648735, 0.071391694247722626, -0.076709218323230743, -0.2492021769285202, 0.088721044361591339, 0.074863508343696594, 0.036404673010110855, -0.02134314551949501, 0.40124064683914185, 0.087078891694545746, 0.048313237726688385, -0.02747238427400589, -0.045659489929676056, -0.15886057913303375, 0.17721158266067505, -0.051781412214040756, -0.23088312149047852, -0.016837488859891891, 0.097830578684806824, 0.019535413011908531, -0.099674306809902191, 0.058317169547080994, 0.030589841306209564, 0.092440776526927948, -0.063748344779014587, -0.094968318939208984, 0.043481301516294479, -0.04239310696721077, -0.1514614075422287, 0.15216052532196045, 0.087755352258682251, -0.094126716256141663, -0.64597505331039429, 0.089388176798820496, 0.11957702040672302, -0.18459856510162354, 0.1199299693107605, -0.023603625595569611, 0.11336477845907211, 0.027824748307466507, 0.37295857071876526, -0.11116532236337662, -0.07756129652261734, -0.030975479632616043, -0.08243957906961441, -0.013358347117900848, 0.066823936998844147, 0.069769598543643951, 0.16715143620967865, -0.087539739906787872, 0.063391529023647308, -0.08809274435043335, -0.10841687023639679, 0.35808172821998596, 0.029572842642664909, -0.058823458850383759, 0.15376767516136169, -0.31447684764862061, 0.033792302012443542, 0.16982121765613556, -0.069575659930706024, 0.19134770333766937, 0.073882587254047394, 0.38725337386131287, 0.20834308862686157, 0.035057038068771362, 0.021469965577125549, -0.16635288298130035, 0.2071269303560257, 0.2704395055770874, -0.081356905400753021, 0.1761176586151123, -0.081968560814857483, -0.09891025722026825, -0.34572499990463257, -0.10629160702228546, 0.071131840348243713, 0.0020685293711721897, 0.1820320338010788, -0.026761949062347412, -0.20365048944950104, 0.099181987345218658, -0.077218823134899139, -0.028671354055404663, -0.014915816485881805, -0.052956059575080872, -0.03789866715669632, 0.08413977175951004, 0.36939570307731628, 0.025128686800599098, 0.075187645852565765, 0.032407615333795547, -0.12632963061332703, 0.15778252482414246, 0.054869748651981354, 0.1336805522441864, -0.1306646317243576, -0.0083274058997631073, -0.023246096447110176, -0.12275350093841553, -0.13288392126560211, 0.43234053254127502, -0.066001869738101959, -0.044656407088041306, -0.083141200244426727, -0.18134021759033203, 0.11077776551246643, -0.0048406124114990234, -0.076536409556865692, 0.15421588718891144, 0.14672839641571045, 0.34953767061233521, 0.13457129895687103, 0.14908884465694427, 0.047723934054374695, -0.1529608815908432, 0.071980372071266174, 0.1637866348028183, -0.040427688509225845, -0.002650815062224865, -0.0089546665549278259, -0.11575483530759811, -0.1103881299495697, -0.11994315683841705, -0.16015292704105377, 0.013893784023821354, 0.090461060404777527, 0.079084157943725586, -0.1458146721124649, 0.04557480663061142, -0.0017255900893360376, -0.29788357019424438, 0.084495596587657928, 0.022896613925695419, 0.017281142994761467, 0.052207738161087036, -0.012152201496064663, -0.36292481422424316, -0.065113440155982971, 0.18713131546974182, 0.050571952015161514, 0.1640656441450119, -0.11880238354206085, 0.31510499119758606, 0.16436377167701721, 0.017004214227199554, 0.025916470214724541, -0.30397006869316101, 0.0945611372590065, 0.024107234552502632, -0.030222317203879356, -0.071056030690670013, 0.16718876361846924, -0.47029304504394531, -0.30831575393676758, 0.039995051920413971, 0.065041586756706238, 0.11084301769733429, -0.075392946600914001, -0.060618676245212555, -0.3830428421497345, -0.048949010670185089, -0.078950062394142151, -0.22411549091339111, -0.20594862103462219, -0.22355943918228149, -0.12037351727485657, 0.076349020004272461, 0.055936474353075027, -0.19597259163856506, 0.0529986172914505, -0.02261984720826149, -0.088075585663318634, 0.065113954246044159, 0.057696852833032608, 0.13805429637432098, 0.23829455673694611, -0.16459336876869202, 0.028218723833560944, -0.15613961219787598, 0.13439978659152985, 0.21697576344013214, -0.021513942629098892, 0.09203675389289856, -0.24953709542751312, -0.28087088465690613, -0.070959962904453278, -0.16118258237838745, 0.0053314892575144768, -0.090206146240234375, -0.054986324161291122, -0.22665511071681976, -0.51411467790603638, 0.075632356107234955, -0.086664564907550812, -0.37173783779144287, -0.20918366312980652, -0.35542690753936768, -0.16373507678508759, -0.14434801042079926, -0.050312966108322144, -0.34467980265617371, -0.21377414464950562, 0.047807320952415466, 0.048282049596309662, 0.060788024216890335, -0.20074920356273651, -0.11621488630771637, -0.31178665161132812, -0.18753568828105927, 0.090018488466739655, -0.34875839948654175, -0.21917074918746948, -0.32333233952522278, -0.19389456510543823, 0.061001218855381012, -0.14506751298904419, -0.38280445337295532, -0.28286275267601013, -0.01564515195786953, -0.046514511108398438, -0.11569118499755859, -0.10007886588573456, -0.43326583504676819, -0.51907676458358765, -0.16662849485874176, -0.023231666535139084, -0.30072343349456787, -0.018750898540019989, -0.222469761967659, -0.048968959599733353, 0.031426619738340378, -0.4106299877166748, -0.22472743690013885, -0.19352194666862488, 0.065830931067466736, -0.070847123861312866, -0.16530464589595795, -0.013839611783623695, -0.45525670051574707, -0.51279765367507935, -0.022352347150444984, 0.081796318292617798, -0.23615728318691254, -0.19780606031417847, -0.31641983985900879, -0.051742739975452423, -0.14705556631088257, -0.46508660912513733, -0.17502772808074951, -0.23760147392749786, -0.092077463865280151, -0.098010219633579254, -0.08532511442899704, -0.22275498509407043, -0.44804450869560242, -0.59584516286849976, -0.2484743595123291, -0.097532950341701508, -0.14380942285060883, -0.33307000994682312, -0.38753312826156616, -0.11296436935663223, -0.10771498829126358, -0.087434694170951843, -0.39760127663612366, -0.18080906569957733, 0.036252398043870926, -0.047536920756101608, -0.058431372046470642, -0.27985844016075134, -0.28162765502929688, -0.30624407529830933, -0.11871886998414993, 0.13971157371997833, -0.13745215535163879, -0.16868376731872559, -0.48390680551528931, -0.090782724320888519, 0.0018747245194390416, 
  -0.43675687909126282, -0.15674112737178802, -0.32504859566688538, 0.054854847490787506, 0.064546503126621246, 0.047208778560161591, -0.13858027756214142, -0.6665644645690918, -0.69894272089004517, -0.20131324231624603, 0.18645380437374115, 0.038065832108259201, -0.30085977911949158, -0.60807985067367554, 0.068638138473033905, 0.13776938617229462, 0.046349432319402695, -0.18963854014873505, -0.21441628038883209, 0.062908992171287537, 0.076525762677192688, 0.090018466114997864, -0.12250130623579025, -0.42760041356086731, -0.53900629281997681, -0.0081129446625709534, 0.21889936923980713, 0.086027413606643677, -0.23872068524360657, -0.24928839504718781, -0.032764829695224762, 0.15493085980415344, 0.1425369530916214, -0.16078510880470276, -0.2395704984664917, 0.12574826180934906, -0.06708943098783493, 0.14871624112129211, 0.033851046115159988, -0.0094535555690526962, 0.1678229421377182, -0.14392805099487305, 0.12406798452138901, -0.040975738316774368, -0.16411888599395752, -0.12255903333425522, 0.034166835248470306, 0.20245574414730072, -0.36635145545005798, -0.14781881868839264, -0.19185343384742737, 0.036067023873329163, 0.056899461895227432, 0.12106421589851379, -0.0009695935295894742, -0.066135726869106293, -0.052255664020776749, 0.0085952095687389374, 0.057134069502353668, -0.29933655261993408, -0.12217625230550766, -0.10461971908807755, 0.07749611884355545, 0.13626916706562042, -0.0084468824788928032, 0.034695100039243698, -0.15044763684272766, 0.22704245150089264, 0.011643285863101482, 0.16405594348907471, 0.032311379909515381, 0.16597643494606018, -0.30504214763641357, 0.005063861608505249, 0.10063454508781433, -0.033332519233226776, -0.1885894387960434, -0.14530913531780243, 0.032423481345176697, -0.020913485437631607, -0.098469264805316925, -0.1040983572602272, -0.12258028984069824, 0.15179893374443054, -0.055620580911636353, 0.11684789508581161, 0.12707948684692383, 0.099827416241168976, 0.087470166385173798, 0.025727730244398117, 0.095888018608093262, -0.13083229959011078, 0.091646961867809296, -0.10890728980302811, 0.04716140404343605, 0.11218258738517761, -0.31851637363433838, -0.16283378005027771, -0.045334402471780777, 0.076865196228027344, -0.0090533001348376274, 0.063675560057163239, -0.0062237321399152279, -0.045715268701314926, -0.10672074556350708, 0.051009643822908401, 0.16690565645694733, -0.13003158569335938, -0.029600959271192551, -0.40839964151382446, 0.14059089124202728, 0.18831169605255127, -0.27237063646316528, -0.050264514982700348, -0.076747119426727295, -0.01543796993792057, 0.11332106590270996, 0.016775855794548988, -0.066990576684474945, -0.19801616668701172, -0.50744885206222534, -0.047789059579372406, 0.1878393292427063, -0.20731514692306519, 0.050885651260614395, -0.32001346349716187, 0.10591122508049011, 0.059987567365169525, -0.2492833286523819, 0.11680982261896133, 0.056001961231231689, -0.05093010887503624, 0.085307352244853973, -0.022651277482509613, -0.14469671249389648, -0.11799583584070206, -0.1025451198220253, 0.008418702520430088, 0.13291463255882263, -0.063291892409324646, -0.056507613509893417, -0.26180732250213623, 0.074210233986377716, 0.16677179932594299, 0.16620887815952301, 0.021312940865755081, -0.12167201936244965, -0.04002055898308754, 0.1784907728433609, 0.10462114959955215, -0.12057989090681076, -0.022193746641278267, 0.10889203101396561, -0.0692858025431633, 0.043477542698383331, -0.032392065972089767, -0.1231086254119873, -0.17812703549861908, 0.10685686022043228, 0.033355563879013062, -0.22596105933189392, -0.011101757176220417, -0.21244356036186218, 0.056443266570568085, -0.027511749416589737, 0.04307262971997261, 0.088753975927829742, -0.19558256864547729, -0.28828912973403931, 0.10362531244754791, 0.23240280151367188, -0.21355944871902466, -0.10059391707181931, -0.24930658936500549, -0.079989507794380188, 0.086100704967975616, -0.062673650681972504, -0.06373615562915802, -0.21725693345069885, -0.10597940534353256, 0.10174123197793961, 0.10299421101808548, -0.027682751417160034, -0.25009945034980774, -0.51310950517654419, -0.087436318397521973, 0.062055226415395737, -0.32299816608428955, -0.37338262796401978, -0.44698166847229004, -0.023435430601239204, 0.062747776508331299, -0.092794887721538544, 0.050605956465005875, 0.093237951397895813, -0.078840114176273346, 0.06979968398809433, 0.081874608993530273, 0.007323436439037323, -0.080198518931865692, -0.20450466871261597, -0.057988967746496201, 0.20406560599803925, -0.18077553808689117, -0.13013908267021179, -0.29102346301078796, 0.0081681013107299805, 0.087229102849960327, -0.2824174165725708, -0.2693265974521637, -0.32574445009231567, 0.12371185421943665, -0.044603064656257629, 0.013910119421780109, -0.0027876300737261772, -0.2954217791557312, -0.18607519567012787, -0.036285229027271271, 0.098058946430683136, 0.046407006680965424, -0.15297247469425201, -0.5016215443611145, -0.073903642594814301, 0.059365194290876389, -0.23263293504714966, -0.079682447016239166, -0.13219465315341949, -0.050424385815858841, -0.07455512136220932, 0.044574204832315445, -0.041107363998889923, -0.37451064586639404, -0.5252453088760376, -0.027154278010129929, 0.16385231912136078, 0.0091640576720237732, -0.15020035207271576, -0.48228371143341064, 0.058961983770132065, 0.049000725150108337, 0.12004587054252625, 0.02217370830476284, 0.027698446065187454, -0.0058455280959606171, 0.043577138334512711, -0.084779083728790283, 0.039503190666437149, -0.1398102194070816, -0.18883195519447327, -0.090093493461608887, 0.14558807015419006, 0.040819603949785233, -0.15608234703540802, -0.15003368258476257, 0.16051280498504639, 0.072176210582256317, -0.075630843639373779, 0.17627638578414917, -0.026188809424638748, 0.062478255480527878, -0.063358746469020844, 0.049788124859333038, -0.040024347603321075, -0.096805475652217865, -0.1829114705324173, 0.029693815857172012, 0.071332745254039764, 0.097912877798080444, -0.11001904308795929, -0.18644043803215027, -0.03230975940823555, 0.20475652813911438, -0.047233793884515762, -0.093800529837608337, -0.28472018241882324, 0.044213671237230301, -0.035816729068756104, 0.064863532781600952, -0.0066389595158398151, -0.094766288995742798, -0.071029603481292725, -0.10217880457639694, 0.10630205273628235, 0.1006462499499321, -0.11775976419448853, -0.0013233695644885302, 0.10415592044591904, 0.16318604350090027, -0.043664611876010895, -0.020812280476093292, -0.050864819437265396, 0.015250855125486851, 0.099097654223442078, -0.0042005106806755066, -0.090842075645923615, -0.13333448767662048, -0.052632987499237061, 0.056357406079769135, 0.11379978060722351, -0.033138792961835861, 0.045391768217086792, -0.14287988841533661, 0.10113335400819778, -0.011760026216506958, 0.19237174093723297, 0.052861250936985016, -0.19636915624141693, 0.1695743203163147, -0.10905762016773224, 0.18693080544471741, 0.15944835543632507, 0.098617404699325562, 0.04756617546081543, -0.006392329465597868, 0.085597440600395203, -0.071770861744880676, -0.099414236843585968, -0.021117452532052994, 0.11532521992921829, 0.077474929392337799, -0.2002541720867157, -0.072701364755630493, -0.069373100996017456, 0.066036418080329895, -0.041762057691812515, 0.041957426816225052, 0.19480426609516144, -0.065667890012264252, 0.091206640005111694, -0.027738634496927261, 0.02323700487613678, -0.075477749109268188, 0.070890426635742188, -0.11105426400899887, 0.12187487632036209, 0.013493595644831657, -0.1611228883266449, -0.011533732526004314, -0.1036001443862915, -0.097690492868423462, -0.0022681835107505322, 0.020691586658358574, -0.033811468631029129, -0.21708877384662628, -0.16017888486385345, -0.0049908552318811417, 0.091901019215583801, -0.066046014428138733, -0.041932743042707443, -0.33936619758605957, -0.061823047697544098, 0.015088246203958988, -0.14249299466609955, 0.03585486114025116, -0.017728894948959351, -0.065706327557563782, -0.082374170422554016, 0.22051922976970673, -0.053456373512744904, 0.16365325450897217, -0.11468831449747086, -0.0014109453186392784, -0.017277373000979424, -0.18153195083141327, -0.017204742878675461, 0.065170451998710632, 0.056509081274271011, 0.16341041028499603, -0.16466140747070312, -0.040275596082210541, 0.0056336917914450169, 0.064629428088665009, -0.053868748247623444, -0.012214148417115211, 0.12398743629455566, 0.015425693243741989, -0.30075481534004211, -0.079122409224510193, 0.11079613119363785, 0.019601477310061455, 0.095054015517234802, -0.23694023489952087, 0.096873141825199127, 0.040243759751319885, -0.15644784271717072, -0.051767632365226746, -0.27089890837669373, 0.21321912109851837, -0.054815072566270828, 0.15777203440666199, 0.061020292341709137, -0.16982138156890869, -0.27121573686599731, 0.080044038593769073, 0.062119331210851669, -0.066955633461475372, -0.21345268189907074, -0.16724403202533722, 0.056778743863105774, 0.029888048768043518, 
  0.12147770076990128, 0.18819430470466614, 0.1931510865688324, -0.0071830116212368011, -0.049674801528453827, 0.023316342383623123, 0.15567798912525177, 0.16061948239803314, 0.25262999534606934, 0.20283448696136475, -0.20037642121315002, -0.11341782659292221, 0.22671148180961609, 0.29501268267631531, -0.057746391743421555, -0.079325906932353973, 0.016454577445983887, -0.016797736287117004, 0.12114818394184113, -0.1335003525018692, 0.03925120085477829, 0.11282043159008026, 0.083228513598442078, 0.17119912803173065, 0.28058004379272461, 0.19968590140342712, -0.18120084702968597, -0.023439869284629822, 0.1475750207901001, 0.13450895249843597, -0.19863896071910858, -0.1030815988779068, 0.065516352653503418, -0.17197044193744659, 0.10006796568632126, -0.044874288141727448, -0.11343371123075485, -0.11187800765037537, 0.012019365094602108, -0.090646907687187195, -0.080383248627185822, -0.043694630265235901, -0.13527350127696991, -0.26349315047264099, 0.018870480358600616, -0.094235882163047791, -8.4829778643324971e-05, -0.22568510472774506, 0.15889827907085419, 0.09148222953081131, 0.10712803155183792, -0.002573701785877347, -0.020232509821653366, -0.11147943884134293, -0.079935044050216675, 0.12817190587520599, 0.033279683440923691, -0.041815180331468582, -0.32141220569610596, 0.010569690726697445, 0.022910073399543762, 0.083869285881519318, -0.18044413626194, -0.085670687258243561, 0.080715730786323547, -0.062557421624660492, 0.014880934730172157, -0.11177580058574677, 0.0040646479465067387, 0.012841871008276939, 0.046227548271417618, 0.099480234086513519, 0.060157295316457748, 0.14691604673862457, -0.17987003922462463, -0.14374318718910217, 0.20680834352970123, 0.2405225932598114, -0.10107108950614929, -0.13752284646034241, 0.1894242912530899, 0.004880344495177269, 0.078819066286087036, -0.0053718769922852516, -0.14394617080688477, -0.080913759768009186, 0.0025961403734982014, 0.16260711848735809, 0.30613350868225098, 0.11231487989425659, -0.11299145966768265, 0.031391113996505737, 0.16741931438446045, 0.30451896786689758, 0.031986642628908157, -0.13789665699005127, -0.01247350312769413, -0.0016805019695311785, -0.14434297382831573, -0.17865462601184845, -0.077568389475345612, -0.076095044612884521, 0.035427115857601166, -0.011301108635962009, -0.12998268008232117, -0.064386002719402313, -0.23735438287258148, -0.10354994237422943, 0.22793290019035339, -0.085992030799388885, -0.21284720301628113, -0.21485230326652527, 0.25633212924003601, 0.36883014440536499, 0.24507009983062744, -0.089276015758514404, 0.020574295893311501, -0.18716537952423096, -0.085640989243984222, 0.20826396346092224, 0.23376670479774475, 0.13899010419845581, -0.12122101336717606, 0.34638038277626038, 0.17132851481437683, 0.31520506739616394, -0.041663274168968201, -0.078403286635875702, 0.089729323983192444, 0.058722186833620071, 0.16579286754131317, -0.068682588636875153, -0.099165968596935272, -0.12459788471460342, 0.062736973166465759, -0.12631605565547943, -0.0023566095624119043, -0.0049032438546419144, -0.2114437073469162, -0.1279146820306778, 0.15736228227615356, -0.11972688883543015, -0.16571412980556488, -0.20671482384204865, -0.40221071243286133, -0.029052499681711197, -0.0080694826319813728, 0.010793517343699932, -0.12962335348129272, -0.1624397486448288, -0.08990844339132309, -0.36289873719215393, -0.52242815494537354, -0.070197582244873047, -0.13175787031650543, -0.16051796078681946, -0.1687290221452713, -0.31917375326156616, -0.137372225522995, -0.041306976228952408, 0.20326831936836243, 0.026072954759001732, 0.14742687344551086, -0.015715846791863441, -0.089032135903835297, -0.23546414077281952, 0.0035328546073287725, -0.059550955891609192, -0.17959146201610565, 0.014818943105638027, -0.22075045108795166, 0.17715071141719818, -0.10612049698829651, 0.29600465297698975, -0.090728089213371277, -0.091028936207294464, 0.4083704948425293, 0.037300493568181992, 0.25845679640769958, 0.066599510610103607, -0.08339797705411911, 0.0040430622175335884, 0.12113239616155624, 0.23117171227931976, 0.11309818923473358, -0.044415418058633804, -0.063951089978218079, 0.15576131641864777, 0.23284178972244263, 0.38218554854393005, -0.1639382541179657, 0.0077519970946013927, 0.044014669954776764, -0.058191198855638504, 0.26978936791419983, 0.11850953847169876, -0.087143205106258392, 0.1199592724442482, 0.08860480785369873, 0.25381404161453247, 0.24783112108707428, 0.19862739741802216, -0.14941263198852539, -0.069522075355052948, 0.30795779824256897, 0.12082355469465256, 0.097089745104312897, -0.01820901595056057, 0.17268793284893036, 0.17321918904781342, 0.046064533293247223, 0.011577244848012924, -0.048027455806732178, -0.15137676894664764, 0.12252219021320343, 0.061379902064800262, -0.2366708517074585, 0.12679308652877808, -0.24558186531066895, -0.015941789373755455, 0.19394908845424652, 0.10417689383029938, -0.018757885321974754, -0.068299382925033569, 0.058924112468957901, -0.095872603356838226, 0.27209559082984924, 0.19684781134128571, 0.0012859030393883586, -0.12563006579875946, 0.16713716089725494, 0.2229897677898407, 0.061248231679201126, 0.011788113974034786, -0.052349578589200974, -0.29014185070991516, 0.030722888186573982, 0.15492720901966095, 0.011182114481925964, 0.013489057309925556, 0.12363017350435257, -0.18558420240879059, -0.056535776704549789, 0.076905794441699982, -0.023743337020277977, -0.085874773561954498, -0.034556802362203598, 0.16261604428291321, -0.021669844165444374, -0.021891338750720024, -0.048032935708761215, -0.050794344395399094, -0.094581626355648041, 0.15748175978660583, -0.1686159074306488, -0.11827806383371353, -0.13406932353973389, 0.032088294625282288, 0.11598055064678192, 0.025982188060879707, -0.033844836056232452, -0.24473662674427032, 0.037097252905368805, 0.016662171110510826, -0.022776905447244644, 0.0042377053759992123, 0.013317923061549664, -0.023635018616914749, 0.23195065557956696, -0.13086068630218506, -0.0030886083841323853, -0.070066004991531372, 0.20171874761581421, 0.16478295624256134, 0.19799745082855225, -0.15637338161468506, 0.10836599767208099, -0.14137361943721771, 0.021138545125722885, 0.02505379356443882, -0.23868915438652039, -0.097618147730827332, -0.24075466394424438, -0.047638930380344391, 0.22354549169540405, 0.2945798933506012, -0.0017856236081570387, -0.096389435231685638, -0.16747213900089264, -0.036346487700939178, 0.26086348295211792, 0.029524896293878555, 0.06917870044708252, -0.12890566885471344, 0.22813290357589722, 0.19195832312107086, 0.14703480899333954, 0.00052635045722126961, 0.1230989396572113, -0.11104221642017365, 0.11786394566297531, 0.04995042085647583, 0.14204265177249908, 0.022339984774589539, 0.19179511070251465, 0.073017828166484833, 0.13564565777778625, -0.25578093528747559, -0.054436024278402328, -0.06468469649553299, -0.026405304670333862, -0.26906836032867432, -0.30181562900543213, 0.021275646984577179, -0.14506539702415466, -0.098333567380905151, -0.017898337915539742, 0.015952764078974724, -0.10463427007198334, -0.13342903554439545, -0.018463375046849251, 0.13417887687683105, 0.21049578487873077, 0.075910687446594238, -0.00082457228563725948, -0.04584137350320816, 0.19201597571372986, 0.24156945943832397, 0.094538494944572449, -0.0021559037268161774, -0.036378096789121628, -0.1396566778421402, 0.25009655952453613, 0.46370121836662292, 0.018743021413683891, 0.15467835962772369, 0.25614827871322632, -0.011804581619799137, 0.15231028199195862, 0.21603512763977051, 0.011599643155932426, 0.17777426540851593, 0.25124207139015198, 0.23050841689109802, 0.16879545152187347, 0.05955861508846283, -0.2477281391620636, -0.18641965091228485, 0.16312280297279358, 0.28144991397857666, -0.11352135986089706, -0.026380941271781921, 0.2377685159444809, 0.057240989059209824, 0.078403018414974213, -0.018715681508183479, 0.076385796070098877, -0.097126372158527374, 0.041958261281251907, -0.055675569921731949, 0.004831953439861536, 0.10707887262105942, -0.27119123935699463, 0.31721934676170349, -0.044791862368583679, 0.0050777057185769081, -0.032721199095249176, -0.27566224336624146, 0.15820915997028351, -0.071242712438106537, 0.22942951321601868, -0.023147283121943474, 0.062455072999000549, 0.025866469368338585, 0.04099210724234581, 0.094607815146446228, 0.24750325083732605, 0.10719592869281769, 0.099954366683959961, 0.11190805584192276, 0.12581884860992432, 0.22494305670261383, -0.032778531312942505, 0.015213633887469769, -0.065382383763790131, 0.098838426172733307, 0.11980584263801575, -0.1464117169380188, -0.050184808671474457, -0.1839393675327301, 0.1860610693693161, 0.11259698867797852, -0.095197513699531555, -0.078413605690002441, -0.056531749665737152, 0.049071319401264191, -0.22099149227142334, -0.12597283720970154, -0.31564244627952576, -0.10373662412166595, 
};
const TfArray<2, int> tensor_dimension5 = { 2, { 4,400 } };
const ALIGN(8) float tensor_data6[8] = { 0, 0, 0, 0, 0, 0, 0, 0, };
const TfArray<1, int> tensor_dimension6 = { 1, { 8 } };
const ALIGN(8) float tensor_data7[8*1*3*32] = { 
  /* [0][0][][] */ -0.50905382633209229,0.097158536314964294,-0.51120328903198242,0.08594115823507309,0.11201291531324387,-0.096407376229763031,0.1183059886097908,-0.0026002600789070129,0.0041268272325396538,-0.092704623937606812,-0.0078710783272981644,0.13401475548744202,0.032123737037181854,0.23891967535018921,-0.049273762851953506,-0.16204631328582764,-0.043905153870582581,0.0032513437326997519,-0.046682745218276978,-0.083796627819538116,-0.13525973260402679,0.13576062023639679,-0.0049543166533112526,0.096502408385276794,0.29113656282424927,0.25269007682800293,-0.19845388829708099,0.038966715335845947,0.035299472510814667,-0.083056174218654633,-0.12732279300689697,0.040537398308515549, -0.33345994353294373,-0.02560344897210598,-0.024786334484815598,0.11677758395671844,-0.19699576497077942,-0.072838611900806427,0.060995783656835556,-0.20103609561920166,0.21284991502761841,0.009038182906806469,0.18573613464832306,-0.094275757670402527,0.0074296556413173676,0.14986185729503632,0.20315529406070709,-0.17355714738368988,0.042715415358543396,-0.037538155913352966,0.24354842305183411,0.016236871480941772,-0.095982380211353302,-0.055397026240825653,-0.0044103260152041912,0.23248863220214844,-0.019905257970094681,-0.078629232943058014,0.060985550284385681,-0.028895432129502296,-0.11164999008178711,-0.080039322376251221,0.15353575348854065,-0.093750864267349243, -0.29225051403045654,-0.16755534708499908,-0.45664709806442261,-0.035653192549943924,0.10152924805879593,0.073287971317768097,-0.079127296805381775,0.035857845097780228,0.08036225289106369,-0.016427863389253616,-0.071006610989570618,-0.13438576459884644,-0.06314820796251297,0.023615375161170959,-0.10963422060012817,-0.048691652715206146,0.084283620119094849,-0.064186595380306244,0.010895164683461189,0.20835027098655701,0.2494669109582901,0.10436397045850754,0.19770617783069611,0.09457600861787796,-0.049268878996372223,-0.10722339153289795,-0.10653130710124969,-0.019139612093567848,0.0033914900850504637,0.13207069039344788,0.0039165075868368149,0.09057975560426712, 
  /* [1][0][][] */ 0.064161956310272217,0.0021397196687757969,-0.064056381583213806,-0.10263723134994507,0.076192840933799744,-0.079999387264251709,-0.062479685992002487,-0.2431144118309021,-0.069928884506225586,0.23012225329875946,0.062923990190029144,-0.1206551119685173,0.24163390696048737,0.095762014389038086,-0.051688574254512787,0.1717495322227478,-0.0028598338831216097,0.065134398639202118,0.080290861427783966,-0.0057914052158594131,-0.14119033515453339,0.13078093528747559,-0.11205229163169861,-0.18116648495197296,0.14932656288146973,0.1155606210231781,0.01325069647282362,0.059786286205053329,-0.093097470700740814,0.22912490367889404,-0.020859409123659134,-0.0786094069480896, 0.069528490304946899,-0.095076031982898712,-0.068467766046524048,-0.13689902424812317,0.0055596381425857544,-0.10072430968284607,-0.024982290342450142,0.047987252473831177,-0.081437043845653534,0.14695483446121216,0.029772968962788582,0.14860978722572327,-0.066811941564083099,0.19632485508918762,0.16526274383068085,-0.08313925564289093,0.19237008690834045,0.18247754871845245,-0.01388337928801775,0.14178445935249329,-0.16289849579334259,-0.18160127103328705,-0.063456885516643524,-0.16920645534992218,-0.01210047397762537,0.12425770610570908,-0.064833208918571472,-0.058867719024419785,0.11958786845207214,0.19387602806091309,0.21072246134281158,0.11505678296089172, 0.13344769179821014,0.064706571400165558,-0.11833092570304871,-0.22554625570774078,-0.15729108452796936,-0.010278886184096336,-0.1661645770072937,0.40798649191856384,0.34567877650260925,0.12051904946565628,-0.064524754881858826,0.22294099628925323,-0.13928245007991791,0.15924172103404999,0.18174982070922852,0.23977875709533691,-0.20115065574645996,0.0037130764685571194,0.047543670982122421,0.15741889178752899,0.080556944012641907,-0.19627881050109863,-0.026127351447939873,-0.19931909441947937,0.11577462404966354,0.10484030842781067,-0.068059533834457397,-0.004088833462446928,0.2475508451461792,0.092751555144786835,-0.10018348693847656,0.17379891872406006, 
  /* [2][0][][] */ -0.019770639017224312,-0.21688356995582581,-0.16715399920940399,0.16319088637828827,-0.25616076588630676,-0.21108648180961609,-0.24718990921974182,0.1389298141002655,-0.11904297769069672,-0.14434511959552765,-0.039034940302371979,0.16606687009334564,0.091821908950805664,0.029060631990432739,-0.11769641935825348,-0.25199329853057861,0.031245218589901924,-0.044227145612239838,-0.085454985499382019,0.16207680106163025,-0.13464926183223724,-0.0087989503517746925,-0.099735617637634277,0.080016478896141052,-0.12119843810796738,-0.11044596880674362,-0.024069458246231079,-0.22695671021938324,-0.20616546273231506,-0.077614881098270416,-0.20283900201320648,0.0018775473581627011, 0.14691071212291718,-0.19651192426681519,-0.076128236949443817,0.12534394860267639,-0.017419256269931793,-0.089937664568424225,0.059420008212327957,-0.05103364959359169,-0.16779743134975433,-0.17765486240386963,-0.12668409943580627,0.064218603074550629,-0.14266902208328247,0.16407164931297302,-0.10952367633581161,-0.22575588524341583,-0.090356625616550446,-0.13838429749011993,0.13595576584339142,-0.13739137351512909,0.10677982866764069,-0.065697833895683289,0.054044995456933975,-0.14981700479984283,0.10214080661535263,-0.10121192783117294,-0.20476824045181274,0.041614733636379242,-0.1378900557756424,-0.13583353161811829,-0.18089611828327179,-0.03529898077249527, -0.0031676224898546934,-0.016840029507875443,-0.17190474271774292,0.12432164698839188,-0.0050139543600380421,-0.070378884673118591,-0.075164392590522766,0.035216044634580612,0.00098304916173219681,-0.10080671310424805,-0.025237627327442169,-0.18177661299705505,0.17706590890884399,0.088476598262786865,-0.098200596868991852,-0.043417129665613174,-0.23433256149291992,-0.24415989220142365,0.13990607857704163,-0.034608550369739532,0.11198112368583679,-0.18844497203826904,0.15109126269817352,0.058002106845378876,-0.13268265128135681,-0.25158572196960449,0.01429403480142355,-0.11741785705089569,0.055552951991558075,0.11278186738491058,-0.020385818555951118,-0.14789307117462158, 
  /* [3][0][][] */ -0.26334929466247559,0.10346956551074982,-0.11100528389215469,0.2287595272064209,0.22583550214767456,-0.20522023737430573,-0.039516884833574295,0.062389910221099854,-0.14159971475601196,0.016626099124550819,-0.018120087683200836,-0.047141231596469879,-0.035532373934984207,0.096828572452068329,0.083270609378814697,-0.25395417213439941,-0.011325059458613396,-0.075672060251235962,-0.28368604183197021,-0.18933254480361938,-0.046138204634189606,0.1059560552239418,0.13564789295196533,-0.24761512875556946,0.1024121418595314,-0.072923675179481506,-0.1267918199300766,-0.12956817448139191,-0.19607679545879364,0.02231048047542572,-0.046515639871358871,-0.054399590939283371, -0.058855794370174408,-0.1781669557094574,-0.10738546401262283,-0.053489647805690765,-0.20502039790153503,0.1468815803527832,-0.059857938438653946,-0.24885672330856323,-0.14001238346099854,-0.018168035894632339,-0.013562663458287716,-0.24931971728801727,0.082173727452754974,0.11885271221399307,0.10066404193639755,-0.022837376222014427,-0.13865275681018829,0.069249451160430908,-0.30133235454559326,0.023093361407518387,-0.15035292506217957,-0.25752115249633789,-0.17983722686767578,0.15427988767623901,-0.06092478334903717,0.1191251128911972,-0.119489885866642,-0.25803989171981812,-0.10958921909332275,0.076983548700809479,0.070275776088237762,-0.27050521969795227, -0.076725296676158905,-0.07003726065158844,-0.058136839419603348,-0.028940347954630852,0.042918514460325241,0.16315872967243195,0.25120878219604492,-0.22860994935035706,-0.28554034233093262,0.065877936780452728,-0.06679089367389679,-0.081633672118186951,-0.27301812171936035,-0.2894628643989563,0.10463906824588776,-0.27856355905532837,-0.064976893365383148,-0.22948519885540009,0.13828489184379578,-0.19839033484458923,0.043958857655525208,-0.13577096164226532,0.072607271373271942,-0.020797029137611389,-0.0087339440360665321,-0.15487082302570343,-0.025406213477253914,0.094097286462783813,0.090815700590610504,-0.039338976144790649,0.053061351180076599,-0.2493884414434433, 
  /* [4][0][][] */ 0.062620572745800018,0.028592413291335106,-0.092764861881732941,0.3521416187286377,0.45187664031982422,0.16456842422485352,0.33538118004798889,0.04698001965880394,-0.19155889749526978,0.060190178453922272,0.095014035701751709,0.27199068665504456,-0.055829472839832306,0.00938384048640728,-0.020268823951482773,-0.20876768231391907,0.010365758091211319,-0.19539983570575714,-0.10273650288581848,-0.15667706727981567,0.01507295947521925,-0.073923937976360321,-0.015720533207058907,-0.22275860607624054,-0.0097151622176170349,0.0039117364212870598,-0.095199301838874817,-0.20257526636123657,0.10165051370859146,-0.26087552309036255,-0.094684123992919922,-0.25121140480041504, 0.17981809377670288,-0.14827409386634827,-0.21248817443847656,-0.13949407637119293,0.24332325160503387,0.5092511773109436,0.15658102929592133,0.25716859102249146,0.04367460310459137,0.20099186897277832,-0.10296820849180222,0.033105872571468353,0.083583571016788483,0.0038803932256996632,-0.23796267807483673,-0.17285548150539398,-0.057715024799108505,-0.088147521018981934,-0.035550538450479507,-0.26820507645606995,-0.25446674227714539,-0.11221232265233994,-0.24910907447338104,-0.13044761121273041,0.14073942601680756,-0.23425966501235962,-0.18707841634750366,0.088613919913768768,-0.1147218719124794,-0.25944525003433228,-0.20491732656955719,0.10718615353107452, 0.12218029797077179,0.12895725667476654,-0.12517724931240082,0.33944609761238098,0.29978278279304504,0.3492475152015686,0.52562260627746582,0.37763050198554993,0.12711696326732635,0.034180309623479843,0.23009844124317169,0.043622981756925583,0.093370839953422546,-0.21768282353878021,0.052424333989620209,-0.10504608601331711,-0.096526682376861572,-0.11890613287687302,0.11960101872682571,-0.046248666942119598,0.1005420982837677,-0.1383030116558075,-0.24427296221256256,-0.14187629520893097,-0.0039888708852231503,0.0014529537875205278,0.074515186250209808,-0.17839227616786957,0.076500952243804932,-0.035623908042907715,-0.14475727081298828,-0.24023431539535522, 
  /* [5][0][][] */ 0.067947857081890106,-0.017017031088471413,0.0067138895392417908,0.1461341381072998,0.11551384627819061,0.15660636126995087,0.1339397132396698,-0.11482194066047668,0.077715352177619934,-0.12242227047681808,0.021581828594207764,0.069447256624698639,0.1648935079574585,-0.039909861981868744,-0.12020954489707947,-0.025074170902371407,0.095287613570690155,0.14722427725791931,-0.12492728233337402,0.073786847293376923,-0.1374833732843399,0.05507199838757515,0.13099199533462524,-0.068109758198261261,-0.0291486456990242,-0.1580640971660614,0.17005051672458649,-0.16297335922718048,-0.13235084712505341,0.034880191087722778,0.15096499025821686,0.04008035734295845, -0.21268054842948914,-0.048875745385885239,-0.09297151118516922,0.25577431917190552,0.10286921262741089,0.089759781956672668,0.084530659019947052,-0.053184475749731064,-0.10226541012525558,-0.13598909974098206,-0.20121325552463531,0.26964986324310303,-0.072288468480110168,0.10153129696846008,0.038525953888893127,0.059263985604047775,-0.21868604421615601,0.13850131630897522,-0.14907217025756836,-0.29480728507041931,-0.23236699402332306,-0.19192966818809509,-0.10212326794862747,-0.080253317952156067,0.043949466198682785,-0.18012326955795288,0.13553094863891602,-0.23380151391029358,-0.20735882222652435,-0.28004282712936401,-0.17581626772880554,-0.22751769423484802, -0.072854161262512207,-0.0020386027172207832,0.075851932168006897,0.076729811728000641,-0.16723063588142395,0.47735366225242615,0.38333806395530701,0.24880090355873108,0.068997271358966827,0.24319210648536682,0.14716148376464844,0.12096123397350311,-0.25220945477485657,0.15624339878559113,0.0084684658795595169,-0.003331643994897604,-0.0066837482154369354,0.017408533021807671,-0.098093025386333466,-0.24898220598697662,-0.028296491131186485,-0.120994932949543,0.093996450304985046,0.12777142226696014,0.12443722784519196,-0.26267668604850769,-0.06768123060464859,0.14014622569084167,0.041914600878953934,0.10490305721759796,-0.022404901683330536,0.13815136253833771, 
  /* [6][0][][] */ -0.21780528128147125,-0.17174690961837769,-0.26991724967956543,-0.19591307640075684,-0.059462852776050568,-0.074821613729000092,0.17275500297546387,0.059273894876241684,-0.19959081709384918,0.2115570604801178,-0.088550455868244171,0.060043934732675552,0.010139421559870243,-0.1164766326546669,0.069344647228717804,0.040818683803081512,0.073608443140983582,-0.094073683023452759,-0.051348470151424408,-0.19984813034534454,-0.13673216104507446,-0.0039735538884997368,-0.015842489898204803,0.1205228790640831,-0.089319817721843719,-0.21141348779201508,-0.21646568179130554,-0.058678753674030304,0.19080349802970886,-0.18185268342494965,-0.25374922156333923,-0.21723861992359161, -0.057196840643882751,0.14270058274269104,-0.031111825257539749,0.12792578339576721,-0.041817139834165573,-0.25405228137969971,-0.23113521933555603,0.093871302902698517,-0.10610515624284744,-0.15973402559757233,-0.085926376283168793,0.0928850919008255,-0.074709497392177582,0.024623500183224678,-0.13520105183124542,-0.25605428218841553,-0.076997198164463043,-0.08531893789768219,0.005596596747636795,0.0079565457999706268,-0.070213183760643005,-0.031451910734176636,-0.24297322332859039,0.13704624772071838,-0.19136804342269897,-0.028009982779622078,-0.24429501593112946,0.17359066009521484,0.0067380936816334724,0.07783082127571106,0.136371910572052,0.021951504051685333, -0.21360649168491364,-0.14833278954029083,-0.19188745319843292,-0.15795186161994934,0.079456567764282227,-0.11671515554189682,-0.0017291485564783216,-0.13039484620094299,-0.17092958092689514,-0.22318547964096069,-0.04364202544093132,0.059730499982833862,-0.0073828152380883694,0.12253227084875107,-0.098046876490116119,0.042005475610494614,-0.18498405814170837,0.11488585919141769,0.050658136606216431,-0.049475327134132385,-0.018453618511557579,-0.11428732424974442,0.14525207877159119,0.065992593765258789,0.09464205801486969,0.13028138875961304,0.0037407034542411566,0.028661718592047691,-0.070496894419193268,-0.0091301742941141129,-0.066320322453975677,-0.020780051127076149, 
  /* [7][0][][] */ -0.13983054459095001,-0.16723014414310455,-0.12593989074230194,0.093992814421653748,0.074215434491634369,-0.17523963749408722,-0.094407431781291962,0.051544137299060822,-0.079820767045021057,0.079407177865505219,-0.19920729100704193,-0.076439239084720612,0.031433634459972382,0.17459158599376678,-0.037293974310159683,-0.0093081723898649216,-0.16793900728225708,0.012323757633566856,0.12025606632232666,-0.22462484240531921,0.14792099595069885,-0.049836359918117523,0.18175709247589111,0.21694730222225189,0.30403566360473633,0.14835171401500702,-0.15880170464515686,-0.22284479439258575,0.15470276772975922,0.14446370303630829,-0.18968853354454041,-0.11737043410539627, 0.069758549332618713,-0.17877046763896942,-0.093984141945838928,-0.1606307178735733,0.18008600175380707,-0.12956221401691437,0.075963504612445831,0.037807904183864594,-0.038666620850563049,-0.058187644928693771,-0.056214176118373871,0.10475137084722519,-0.22803080081939697,-0.01428557001054287,0.095994621515274048,0.089790530502796173,0.12574684619903564,-0.069727405905723572,-0.10570210218429565,0.02951800636947155,-0.15863989293575287,-0.1002572700381279,0.10785362124443054,-0.23309585452079773,0.054324887692928314,-0.024347268044948578,0.029990017414093018,-0.21420443058013916,-0.058156169950962067,-0.13092544674873352,0.1677413135766983,-0.18360760807991028, 0.23438765108585358,0.12837874889373779,0.16146004199981689,-0.054126359522342682,0.19439554214477539,0.33896023035049438,0.21422864496707916,-0.0080848103389143944,0.012280973605811596,0.11306282132863998,-0.23889923095703125,-0.22276578843593597,-0.23255003988742828,0.13553051650524139,0.077016443014144897,-0.18604309856891632,-0.21496087312698364,-0.22058951854705811,-0.20218276977539062,-0.10362191498279572,0.10595162957906723,-0.0013349199434742332,0.12188759446144104,0.16526076197624207,-0.18055689334869385,0.014580125920474529,-0.23342785239219666,-0.081953436136245728,-0.070041574537754059,0.084665581583976746,-0.12528035044670105,0.070579260587692261, 
};
const TfArray<4, int> tensor_dimension7 = { 4, { 8,1,3,32 } };
const ALIGN(8) float tensor_data8[16] = { 0, 0, 0, 0, 0, 0, 0, 0, 0, 0, 0, 0, 0, 0, 0, 0, };
const TfArray<1, int> tensor_dimension8 = { 1, { 16 } };
const ALIGN(8) float tensor_data9[16*1*3*8] = { 
  /* [0][0][][] */ -0.13159196078777313,-0.023642299696803093,-0.14027300477027893,0.18783962726593018,-0.11995275318622589,-0.30965688824653625,0.24546556174755096,-0.12574566900730133, 0.061543222516775131,0.068199396133422852,-0.24546729028224945,-0.026389993727207184,0.1967577338218689,-0.1545623391866684,0.17908763885498047,0.015997277572751045, -0.022822974249720573,-0.0849141925573349,0.19121380150318146,0.27862700819969177,0.84906303882598877,0.57789337635040283,0.18086493015289307,0.3248019814491272, 
  /* [1][0][][] */ -0.27344825863838196,0.42333003878593445,-0.22726845741271973,-0.26244166493415833,0.049698889255523682,-0.12454152852296829,0.16471092402935028,0.070854552090167999, -0.36468303203582764,-0.074962951242923737,-0.1139533668756485,-0.029340812936425209,-0.12013819813728333,0.083598390221595764,-0.075431503355503082,-0.1159549355506897, -0.095948658883571625,0.33903920650482178,0.041724856942892075,0.18536293506622314,0.35569149255752563,-0.018062213435769081,-0.2278740406036377,-0.016623260453343391, 
  /* [2][0][][] */ -0.21961683034896851,0.28133136034011841,-0.2388467937707901,-0.18037696182727814,0.18012076616287231,0.30838927626609802,-0.23151399195194244,-0.17258328199386597, 0.086936973035335541,0.065432995557785034,-0.037455234676599503,0.22947706282138824,0.37661382555961609,-0.0606873519718647,-0.23069609701633453,0.17723527550697327, -0.15028645098209381,-0.21411359310150146,-0.14770381152629852,-0.25728574395179749,0.1815597265958786,0.088441364467144012,0.1287810355424881,0.024444848299026489, 
  /* [3][0][][] */ -0.14998625218868256,0.019063223153352737,0.024298697710037231,0.012287504971027374,-0.14346298575401306,0.31226906180381775,-0.078366205096244812,0.31457901000976562, 0.085226841270923615,-0.077417418360710144,0.081378325819969177,0.30892375111579895,0.14154385030269623,0.30762967467308044,0.21271571516990662,-0.088686533272266388, 0.26410520076751709,-0.21593219041824341,0.17065535485744476,0.034982398152351379,-0.23425155878067017,0.12996381521224976,0.24624738097190857,-0.047138646245002747, 
  /* [4][0][][] */ 0.059050016105175018,0.019399002194404602,0.21797960996627808,-0.043149001896381378,0.060197286307811737,-0.20092327892780304,-0.12904311716556549,0.095993846654891968, -0.25414749979972839,-0.086942076683044434,0.025070274248719215,-0.11179085820913315,-0.14757783710956573,-0.22959426045417786,0.13427786529064178,0.34006339311599731, 0.29360413551330566,-0.2741239070892334,0.22054968774318695,0.21233318746089935,-0.17942874133586884,0.17485170066356659,-0.22264789044857025,0.26729446649551392, 
  /* [5][0][][] */ 0.43945258855819702,-0.16256310045719147,-0.29033499956130981,0.1725078821182251,0.094136610627174377,0.30507585406303406,0.01310312282294035,0.46391299366950989, 0.047517959028482437,-0.21535259485244751,-0.23881262540817261,0.23010726273059845,0.068759463727474213,0.31125488877296448,-0.15139672160148621,-0.18816418945789337, 0.13609303534030914,-0.08795996755361557,0.093042537569999695,-0.068538472056388855,0.11187835037708282,0.05682932585477829,-0.23468807339668274,0.070807628333568573, 
  /* [6][0][][] */ 0.14930801093578339,0.10535687953233719,0.10932911932468414,0.26430770754814148,0.31429296731948853,0.15464986860752106,-0.2149285227060318,0.20391760766506195, 0.058795049786567688,0.048273302614688873,0.082878708839416504,-0.24616241455078125,0.2640720009803772,0.29714256525039673,-0.065271414816379547,-0.21731187403202057, -0.15065206587314606,0.18524232506752014,-0.0098984837532043457,-0.10995940864086151,0.29786664247512817,-0.21242785453796387,-0.0031160453800112009,0.053413689136505127, 
  /* [7][0][][] */ -0.16168636083602905,-0.10485821217298508,0.22131189703941345,-0.052014302462339401,0.013370637781918049,0.41522198915481567,0.24811314046382904,0.089195944368839264, 0.065629728138446808,-0.085032455623149872,-0.13321223855018616,0.17148125171661377,0.81170886754989624,0.49484258890151978,0.16395708918571472,-0.19711112976074219, -0.17360112071037292,-0.15224665403366089,-0.14599329233169556,0.095772333443164825,0.54000353813171387,0.31808003783226013,-0.081195227801799774,0.1212889701128006, 
  /* [8][0][][] */ -0.36146596074104309,-0.16090419888496399,0.20534259080886841,-0.086637496948242188,0.24855159223079681,0.15958583354949951,-0.012330223806202412,0.38938730955123901, -0.11836257576942444,-0.093932777643203735,-0.21937526762485504,0.33863264322280884,0.81153517961502075,0.45716142654418945,0.15449556708335876,0.34160688519477844, -0.030815713107585907,-0.21097089350223541,0.15045478940010071,-0.052880574017763138,0.41006863117218018,0.14059643447399139,0.23319080471992493,0.09726165235042572, 
  /* [9][0][][] */ -0.20460627973079681,-0.11412142217159271,0.042169876396656036,0.0573287233710289,0.40224757790565491,0.20362590253353119,-0.24068139493465424,-0.0094015328213572502, -0.091412320733070374,0.3553445041179657,0.24320530891418457,-0.18069246411323547,0.27275016903877258,0.12547619640827179,0.21649838984012604,-0.1348259299993515, -0.27943599224090576,-0.0017418472561985254,0.20227034389972687,0.087448589503765106,0.08841327577829361,-0.079723052680492401,0.14118689298629761,0.084518440067768097, 
  /* [10][0][][] */ 0.34945067763328552,-0.036960050463676453,0.20255659520626068,-0.04009237140417099,-0.071500487625598907,-0.17620831727981567,-0.082929663360118866,0.48106497526168823, 0.77522057294845581,-0.025662524625658989,0.063852988183498383,0.11558865755796432,0.10756790637969971,0.14838889241218567,0.30633017420768738,-0.10844205319881439, 0.44423979520797729,-0.01272297278046608,-0.029630422592163086,-0.21617439389228821,-0.16319005191326141,-0.030741605907678604,0.25606793165206909,0.0039062686264514923, 
  /* [11][0][][] */ -0.15126356482505798,-0.11658992618322372,-0.039733856916427612,0.082231529057025909,-0.15862062573432922,-0.36294585466384888,0.19764113426208496,-0.0099569289013743401, -0.27840122580528259,0.3458569347858429,0.20885778963565826,-0.16312558948993683,-0.19261303544044495,-0.16885797679424286,0.045371454209089279,0.23678508400917053, -0.13621468842029572,0.14242467284202576,-0.23676395416259766,0.1866687685251236,0.47337710857391357,-0.22501923143863678,0.19539996981620789,0.14052572846412659, 
  /* [12][0][][] */ 0.021707599982619286,0.06239878386259079,-0.31739938259124756,0.019808439537882805,0.47767618298530579,0.33664372563362122,0.13093326985836029,-0.10772372037172318, -0.14394859969615936,-0.0025964719243347645,0.24563165009021759,0.088560625910758972,0.51475441455841064,-0.16452385485172272,0.13102804124355316,0.078029312193393707, -0.099409997463226318,0.1976047158241272,-0.11848912388086319,-0.11413311958312988,0.11196895688772202,0.20159319043159485,0.012389720417559147,0.19776783883571625, 
  /* [13][0][][] */ -0.11785241961479187,0.13947704434394836,-0.1914345920085907,0.22681348025798798,-0.06777644157409668,-0.0454404316842556,-0.050662759691476822,-0.088564813137054443, -0.09084378182888031,-0.0011571772629395127,0.078025847673416138,0.21405306458473206,0.68997955322265625,0.24971583485603333,-0.21926051378250122,0.30225864052772522, -0.12549135088920593,-0.14179424941539764,-0.17319664359092712,0.31434357166290283,0.41182863712310791,0.29395967721939087,0.23014731705188751,-0.19151106476783752, 
  /* [14][0][][] */ 0.1687825471162796,0.046581633388996124,0.14659909904003143,0.1364896297454834,-0.28101736307144165,0.29917442798614502,-0.09813709557056427,-0.31780585646629333, 0.31978139281272888,0.12681141495704651,-0.22260357439517975,0.065987423062324524,0.19766665995121002,-0.0015740272356197238,0.041027374565601349,-0.1020594984292984, 0.0057662348262965679,0.27133035659790039,0.17575231194496155,-0.14351271092891693,-0.091660283505916595,0.12425867468118668,0.060838263481855392,-0.021464867517352104, 
  /* [15][0][][] */ 0.51307624578475952,0.11606046557426453,-0.075948476791381836,0.25927016139030457,-0.18293394148349762,-0.22971296310424805,-0.20491226017475128,0.28158572316169739, 0.13704778254032135,0.071215569972991943,0.018925625830888748,-0.16764745116233826,0.095448583364486694,0.21099103987216949,0.26866355538368225,0.098469361662864685, 0.48833552002906799,-0.16647939383983612,0.14433817565441132,-0.18205806612968445,-0.15000906586647034,0.15113313496112823,-0.19392740726470947,0.093515768647193909, 
};
const TfArray<4, int> tensor_dimension9 = { 4, { 16,1,3,8 } };
const ALIGN(8) int32_t tensor_data10[4] = { 1, 1, 98, 32, };
const TfArray<1, int> tensor_dimension10 = { 1, { 4 } };
const ALIGN(8) int32_t tensor_data11[3] = { 1, 98, 8, };
const TfArray<1, int> tensor_dimension11 = { 1, { 3 } };
const ALIGN(8) int32_t tensor_data12[4] = { 1, 98, 1, 8, };
const TfArray<1, int> tensor_dimension12 = { 1, { 4 } };
const ALIGN(8) int32_t tensor_data13[4] = { 1, 1, 49, 8, };
const TfArray<1, int> tensor_dimension13 = { 1, { 4 } };
const ALIGN(8) int32_t tensor_data14[3] = { 1, 49, 16, };
const TfArray<1, int> tensor_dimension14 = { 1, { 3 } };
const ALIGN(8) int32_t tensor_data15[4] = { 1, 49, 1, 16, };
const TfArray<1, int> tensor_dimension15 = { 1, { 4 } };
const TfArray<4, int> tensor_dimension16 = { 4, { 1,1,98,32 } };
const TfArray<4, int> tensor_dimension17 = { 4, { 1,1,98,8 } };
const TfArray<3, int> tensor_dimension18 = { 3, { 1,98,8 } };
const TfArray<3, int> tensor_dimension19 = { 3, { 1,98,8 } };
const TfArray<4, int> tensor_dimension20 = { 4, { 1,98,1,8 } };
const TfArray<4, int> tensor_dimension21 = { 4, { 1,49,1,8 } };
const TfArray<4, int> tensor_dimension22 = { 4, { 1,1,49,8 } };
const TfArray<4, int> tensor_dimension23 = { 4, { 1,1,49,16 } };
const TfArray<3, int> tensor_dimension24 = { 3, { 1,49,16 } };
const TfArray<3, int> tensor_dimension25 = { 3, { 1,49,16 } };
const TfArray<4, int> tensor_dimension26 = { 4, { 1,49,1,16 } };
const TfArray<4, int> tensor_dimension27 = { 4, { 1,25,1,16 } };
const TfArray<2, int> tensor_dimension28 = { 2, { 1,400 } };
const TfArray<2, int> tensor_dimension29 = { 2, { 1,4 } };
const TfArray<2, int> tensor_dimension30 = { 2, { 1,4 } };
const TfLiteReshapeParams opdata0 = { { 0, 0, 0, 0, 0, 0, 0, 0, }, 0 };
const TfArray<2, int> inputs0 = { 2, { 0,10 } };
const TfArray<1, int> outputs0 = { 1, { 16 } };
const TfLiteConvParams opdata1 = { kTfLitePaddingSame, 1,1, kTfLiteActNone, 1,1 };
const TfArray<3, int> inputs1 = { 3, { 16,7,6 } };
const TfArray<1, int> outputs1 = { 1, { 17 } };
const TfLiteReshapeParams opdata2 = { { 0, 0, 0, 0, 0, 0, 0, 0, }, 0 };
const TfArray<2, int> inputs2 = { 2, { 17,11 } };
const TfArray<1, int> outputs2 = { 1, { 18 } };
const TfLiteAddParams opdata3 = { kTfLiteActRelu };
const TfArray<2, int> inputs3 = { 2, { 18,2 } };
const TfArray<1, int> outputs3 = { 1, { 19 } };
const TfLiteReshapeParams opdata4 = { { 0, 0, 0, 0, 0, 0, 0, 0, }, 0 };
const TfArray<2, int> inputs4 = { 2, { 19,12 } };
const TfArray<1, int> outputs4 = { 1, { 20 } };
const TfLitePoolParams opdata5 = { kTfLitePaddingSame, 1,2, 1,2, kTfLiteActNone, { { 0,0, 0, 0 } } };
const TfArray<1, int> inputs5 = { 1, { 20 } };
const TfArray<1, int> outputs5 = { 1, { 21 } };
const TfLiteReshapeParams opdata6 = { { 0, 0, 0, 0, 0, 0, 0, 0, }, 0 };
const TfArray<2, int> inputs6 = { 2, { 21,13 } };
const TfArray<1, int> outputs6 = { 1, { 22 } };
const TfLiteConvParams opdata7 = { kTfLitePaddingSame, 1,1, kTfLiteActNone, 1,1 };
const TfArray<3, int> inputs7 = { 3, { 22,9,8 } };
const TfArray<1, int> outputs7 = { 1, { 23 } };
const TfLiteReshapeParams opdata8 = { { 0, 0, 0, 0, 0, 0, 0, 0, }, 0 };
const TfArray<2, int> inputs8 = { 2, { 23,14 } };
const TfArray<1, int> outputs8 = { 1, { 24 } };
const TfLiteAddParams opdata9 = { kTfLiteActRelu };
const TfArray<2, int> inputs9 = { 2, { 24,3 } };
const TfArray<1, int> outputs9 = { 1, { 25 } };
const TfLiteReshapeParams opdata10 = { { 0, 0, 0, 0, 0, 0, 0, 0, }, 0 };
const TfArray<2, int> inputs10 = { 2, { 25,15 } };
const TfArray<1, int> outputs10 = { 1, { 26 } };
const TfLitePoolParams opdata11 = { kTfLitePaddingSame, 1,2, 1,2, kTfLiteActNone, { { 0,0, 0, 0 } } };
const TfArray<1, int> inputs11 = { 1, { 26 } };
const TfArray<1, int> outputs11 = { 1, { 27 } };
const TfLiteReshapeParams opdata12 = { { 0, 0, 0, 0, 0, 0, 0, 0, }, 0 };
const TfArray<2, int> inputs12 = { 2, { 27,1 } };
const TfArray<1, int> outputs12 = { 1, { 28 } };
const TfLiteFullyConnectedParams opdata13 = { kTfLiteActNone, kTfLiteFullyConnectedWeightsFormatDefault, false, false };
const TfArray<3, int> inputs13 = { 3, { 28,5,4 } };
const TfArray<1, int> outputs13 = { 1, { 29 } };
const TfLiteSoftmaxParams opdata14 = { 1 };
const TfArray<1, int> inputs14 = { 1, { 29 } };
const TfArray<1, int> outputs14 = { 1, { 30 } };
const TensorInfo_t tensorData[] = {
  { kTfLiteArenaRw, kTfLiteFloat32, tensor_arena + 12544, (TfLiteIntArray*)&tensor_dimension0, 12544, },
  { kTfLiteMmapRo, kTfLiteInt32, (void*)tensor_data1, (TfLiteIntArray*)&tensor_dimension1, 8, },
  { kTfLiteMmapRo, kTfLiteFloat32, (void*)tensor_data2, (TfLiteIntArray*)&tensor_dimension2, 32, },
  { kTfLiteMmapRo, kTfLiteFloat32, (void*)tensor_data3, (TfLiteIntArray*)&tensor_dimension3, 64, },
  { kTfLiteMmapRo, kTfLiteFloat32, (void*)tensor_data4, (TfLiteIntArray*)&tensor_dimension4, 16, },
  { kTfLiteMmapRo, kTfLiteFloat32, (void*)tensor_data5, (TfLiteIntArray*)&tensor_dimension5, 6400, },
  { kTfLiteMmapRo, kTfLiteFloat32, (void*)tensor_data6, (TfLiteIntArray*)&tensor_dimension6, 32, },
  { kTfLiteMmapRo, kTfLiteFloat32, (void*)tensor_data7, (TfLiteIntArray*)&tensor_dimension7, 3072, },
  { kTfLiteMmapRo, kTfLiteFloat32, (void*)tensor_data8, (TfLiteIntArray*)&tensor_dimension8, 64, },
  { kTfLiteMmapRo, kTfLiteFloat32, (void*)tensor_data9, (TfLiteIntArray*)&tensor_dimension9, 1536, },
  { kTfLiteMmapRo, kTfLiteInt32, (void*)tensor_data10, (TfLiteIntArray*)&tensor_dimension10, 16, },
  { kTfLiteMmapRo, kTfLiteInt32, (void*)tensor_data11, (TfLiteIntArray*)&tensor_dimension11, 12, },
  { kTfLiteMmapRo, kTfLiteInt32, (void*)tensor_data12, (TfLiteIntArray*)&tensor_dimension12, 16, },
  { kTfLiteMmapRo, kTfLiteInt32, (void*)tensor_data13, (TfLiteIntArray*)&tensor_dimension13, 16, },
  { kTfLiteMmapRo, kTfLiteInt32, (void*)tensor_data14, (TfLiteIntArray*)&tensor_dimension14, 12, },
  { kTfLiteMmapRo, kTfLiteInt32, (void*)tensor_data15, (TfLiteIntArray*)&tensor_dimension15, 16, },
  { kTfLiteArenaRw, kTfLiteFloat32, tensor_arena + 0, (TfLiteIntArray*)&tensor_dimension16, 12544, },
  { kTfLiteArenaRw, kTfLiteFloat32, tensor_arena + 12544, (TfLiteIntArray*)&tensor_dimension17, 3136, },
  { kTfLiteArenaRw, kTfLiteFloat32, tensor_arena + 0, (TfLiteIntArray*)&tensor_dimension18, 3136, },
  { kTfLiteArenaRw, kTfLiteFloat32, tensor_arena + 3136, (TfLiteIntArray*)&tensor_dimension19, 3136, },
  { kTfLiteArenaRw, kTfLiteFloat32, tensor_arena + 0, (TfLiteIntArray*)&tensor_dimension20, 3136, },
  { kTfLiteArenaRw, kTfLiteFloat32, tensor_arena + 3136, (TfLiteIntArray*)&tensor_dimension21, 1568, },
  { kTfLiteArenaRw, kTfLiteFloat32, tensor_arena + 0, (TfLiteIntArray*)&tensor_dimension22, 1568, },
  { kTfLiteArenaRw, kTfLiteFloat32, tensor_arena + 3136, (TfLiteIntArray*)&tensor_dimension23, 3136, },
  { kTfLiteArenaRw, kTfLiteFloat32, tensor_arena + 0, (TfLiteIntArray*)&tensor_dimension24, 3136, },
  { kTfLiteArenaRw, kTfLiteFloat32, tensor_arena + 3136, (TfLiteIntArray*)&tensor_dimension25, 3136, },
  { kTfLiteArenaRw, kTfLiteFloat32, tensor_arena + 0, (TfLiteIntArray*)&tensor_dimension26, 3136, },
  { kTfLiteArenaRw, kTfLiteFloat32, tensor_arena + 3136, (TfLiteIntArray*)&tensor_dimension27, 1600, },
  { kTfLiteArenaRw, kTfLiteFloat32, tensor_arena + 0, (TfLiteIntArray*)&tensor_dimension28, 1600, },
  { kTfLiteArenaRw, kTfLiteFloat32, tensor_arena + 1600, (TfLiteIntArray*)&tensor_dimension29, 16, },
  { kTfLiteArenaRw, kTfLiteFloat32, tensor_arena + 0, (TfLiteIntArray*)&tensor_dimension30, 16, },
};const NodeInfo_t nodeData[] = {
  { (TfLiteIntArray*)&inputs0, (TfLiteIntArray*)&outputs0, const_cast<void*>(static_cast<const void*>(&opdata0)), OP_RESHAPE, },
  { (TfLiteIntArray*)&inputs1, (TfLiteIntArray*)&outputs1, const_cast<void*>(static_cast<const void*>(&opdata1)), OP_CONV_2D, },
  { (TfLiteIntArray*)&inputs2, (TfLiteIntArray*)&outputs2, const_cast<void*>(static_cast<const void*>(&opdata2)), OP_RESHAPE, },
  { (TfLiteIntArray*)&inputs3, (TfLiteIntArray*)&outputs3, const_cast<void*>(static_cast<const void*>(&opdata3)), OP_ADD, },
  { (TfLiteIntArray*)&inputs4, (TfLiteIntArray*)&outputs4, const_cast<void*>(static_cast<const void*>(&opdata4)), OP_RESHAPE, },
  { (TfLiteIntArray*)&inputs5, (TfLiteIntArray*)&outputs5, const_cast<void*>(static_cast<const void*>(&opdata5)), OP_MAX_POOL_2D, },
  { (TfLiteIntArray*)&inputs6, (TfLiteIntArray*)&outputs6, const_cast<void*>(static_cast<const void*>(&opdata6)), OP_RESHAPE, },
  { (TfLiteIntArray*)&inputs7, (TfLiteIntArray*)&outputs7, const_cast<void*>(static_cast<const void*>(&opdata7)), OP_CONV_2D, },
  { (TfLiteIntArray*)&inputs8, (TfLiteIntArray*)&outputs8, const_cast<void*>(static_cast<const void*>(&opdata8)), OP_RESHAPE, },
  { (TfLiteIntArray*)&inputs9, (TfLiteIntArray*)&outputs9, const_cast<void*>(static_cast<const void*>(&opdata9)), OP_ADD, },
  { (TfLiteIntArray*)&inputs10, (TfLiteIntArray*)&outputs10, const_cast<void*>(static_cast<const void*>(&opdata10)), OP_RESHAPE, },
  { (TfLiteIntArray*)&inputs11, (TfLiteIntArray*)&outputs11, const_cast<void*>(static_cast<const void*>(&opdata11)), OP_MAX_POOL_2D, },
  { (TfLiteIntArray*)&inputs12, (TfLiteIntArray*)&outputs12, const_cast<void*>(static_cast<const void*>(&opdata12)), OP_RESHAPE, },
  { (TfLiteIntArray*)&inputs13, (TfLiteIntArray*)&outputs13, const_cast<void*>(static_cast<const void*>(&opdata13)), OP_FULLY_CONNECTED, },
  { (TfLiteIntArray*)&inputs14, (TfLiteIntArray*)&outputs14, const_cast<void*>(static_cast<const void*>(&opdata14)), OP_SOFTMAX, },
};
static std::vector<void*> overflow_buffers;
static TfLiteStatus AllocatePersistentBuffer(struct TfLiteContext* ctx,
                                                 size_t bytes, void** ptr) {
  if (current_location - bytes < tensor_boundary) {
    // OK, this will look super weird, but.... we have CMSIS-NN buffers which
    // we cannot calculate beforehand easily.
    *ptr = malloc(bytes);
    if (*ptr == NULL) {
      printf("ERR: Failed to allocate persistent buffer of size %u\n", bytes);
      return kTfLiteError;
    }
    overflow_buffers.push_back(*ptr);
    return kTfLiteOk;
  }

  current_location -= bytes;

  *ptr = current_location;
  return kTfLiteOk;
}
typedef struct {
  size_t bytes;
  void *ptr;
} scratch_buffer_t;
static std::vector<scratch_buffer_t> scratch_buffers;

static TfLiteStatus RequestScratchBufferInArena(struct TfLiteContext* ctx, size_t bytes,
                                                int* buffer_idx) {
  scratch_buffer_t b;
  b.bytes = bytes;

  TfLiteStatus s = AllocatePersistentBuffer(ctx, b.bytes, &b.ptr);
  if (s != kTfLiteOk) {
    return s;
  }

  scratch_buffers.push_back(b);

  *buffer_idx = scratch_buffers.size() - 1;

  return kTfLiteOk;
}

static void* GetScratchBuffer(struct TfLiteContext* ctx, int buffer_idx) {
  if (buffer_idx > static_cast<int>(scratch_buffers.size()) - 1) {
    return NULL;
  }
  return scratch_buffers[buffer_idx].ptr;
}
} // namespace

  TfLiteStatus trained_model_init( void*(*alloc_fnc)(size_t,size_t) ) {
  tensor_arena = (uint8_t*) alloc_fnc(16, kTensorArenaSize);
  current_location = tensor_arena + kTensorArenaSize;
  tensor_boundary = tensor_arena;
  ctx.AllocatePersistentBuffer = &AllocatePersistentBuffer;
  ctx.RequestScratchBufferInArena = &RequestScratchBufferInArena;
  ctx.GetScratchBuffer = &GetScratchBuffer;
  ctx.tensors = tflTensors;
  ctx.tensors_size = 31;
  for(size_t i = 0; i < 31; ++i) {
    tflTensors[i].type = tensorData[i].type;
    tflTensors[i].is_variable = 0;
    tflTensors[i].allocation_type = tensorData[i].allocation_type;
    tflTensors[i].bytes = tensorData[i].bytes;
    tflTensors[i].dims = tensorData[i].dims;
    if(tflTensors[i].allocation_type == kTfLiteArenaRw){
      uint8_t* start = (uint8_t*) ((uintptr_t)tensorData[i].data + (uintptr_t) tensor_arena);
      uint8_t* end = start + tensorData[i].bytes;

     tflTensors[i].data.data =  start;

     if (end > tensor_boundary) {
       tensor_boundary = end;
     }
    }
    else{
       tflTensors[i].data.data = tensorData[i].data;
    }
    tflTensors[i].quantization.type = kTfLiteNoQuantization;
  }
  registrations[OP_RESHAPE] = *tflite::ops::micro::Register_RESHAPE();
  registrations[OP_CONV_2D] = *tflite::ops::micro::Register_CONV_2D();
  registrations[OP_ADD] = *tflite::ops::micro::Register_ADD();
  registrations[OP_MAX_POOL_2D] = *tflite::ops::micro::Register_MAX_POOL_2D();
  registrations[OP_FULLY_CONNECTED] = *tflite::ops::micro::Register_FULLY_CONNECTED();
  registrations[OP_SOFTMAX] = *tflite::ops::micro::Register_SOFTMAX();

  for(size_t i = 0; i < 15; ++i) {
    tflNodes[i].inputs = nodeData[i].inputs;
    tflNodes[i].outputs = nodeData[i].outputs;
    tflNodes[i].builtin_data = nodeData[i].builtin_data;
    tflNodes[i].custom_initial_data = nullptr;
    tflNodes[i].custom_initial_data_size = 0;
    if (registrations[nodeData[i].used_op_index].init) {
      tflNodes[i].user_data = registrations[nodeData[i].used_op_index].init(&ctx, (const char*)tflNodes[i].builtin_data, 0);
    }
  }
  for(size_t i = 0; i < 15; ++i) {
    if (registrations[nodeData[i].used_op_index].prepare) {
      TfLiteStatus status = registrations[nodeData[i].used_op_index].prepare(&ctx, &tflNodes[i]);
      if (status != kTfLiteOk) {
        return status;
      }
    }
  }
  return kTfLiteOk;
}

static const int inTensorIndices[] = {
  0, 
};
TfLiteTensor* trained_model_input(int index) {
  return &ctx.tensors[inTensorIndices[index]];
}

static const int outTensorIndices[] = {
  30, 
};
TfLiteTensor* trained_model_output(int index) {
  return &ctx.tensors[outTensorIndices[index]];
}

TfLiteStatus trained_model_invoke() {
  for(size_t i = 0; i < 15; ++i) {
    TfLiteStatus status = registrations[nodeData[i].used_op_index].invoke(&ctx, &tflNodes[i]);
    if (status != kTfLiteOk) {
      return status;
    }
  }
  return kTfLiteOk;
}

TfLiteStatus trained_model_reset( void (*free_fnc)(void* ptr) ) {
  free_fnc(tensor_arena);
  scratch_buffers.clear();
  for (size_t ix = 0; ix < overflow_buffers.size(); ix++) {
    free(overflow_buffers[ix]);
  }
  overflow_buffers.clear();
  return kTfLiteOk;
}
